<?xml version="1.0"?>
<opencv_storage>
<cascade>
  <stageType>BOOST</stageType>
  <featureType>HAAR</featureType>
  <height>24</height>
  <width>24</width>
  <stageParams>
    <boostType>GAB</boostType>
    <minHitRate>9.9500000476837158e-01</minHitRate>
    <maxFalseAlarm>5.0000000000000000e-01</maxFalseAlarm>
    <weightTrimRate>9.4999998807907104e-01</weightTrimRate>
    <maxDepth>1</maxDepth>
    <maxWeakCount>100</maxWeakCount></stageParams>
  <featureParams>
    <maxCatCount>0</maxCatCount>
    <featSize>1</featSize>
    <mode>BASIC</mode></featureParams>
  <stageNum>11</stageNum>
  <stages>
    <!-- stage 0 -->
    <_>
      <maxWeakCount>3</maxWeakCount>
      <stageThreshold>-9.0868896245956421e-01</stageThreshold>
      <weakClassifiers>
        <_>
          <internalNodes>
            0 -1 3 2.9850113391876221e-01</internalNodes>
          <leafValues>
            -9.7239649295806885e-01 7.2815531492233276e-01</leafValues></_>
        <_>
          <internalNodes>
            0 -1 12 3.3611369132995605e-01</internalNodes>
          <leafValues>
            -8.6595350503921509e-01 9.6939712762832642e-01</leafValues></_>
        <_>
          <internalNodes>
            0 -1 5 3.1264087557792664e-01</internalNodes>
          <leafValues>
            -8.2445931434631348e-01 9.2966103553771973e-01</leafValues></_></weakClassifiers></_>
    <!-- stage 1 -->
    <_>
      <maxWeakCount>3</maxWeakCount>
      <stageThreshold>-1.2076038122177124e+00</stageThreshold>
      <weakClassifiers>
        <_>
          <internalNodes>
            0 -1 18 2.0391295850276947e-01</internalNodes>
          <leafValues>
            -8.7985867261886597e-01 9.2156863212585449e-01</leafValues></_>
        <_>
          <internalNodes>
            0 -1 20 -3.1979184597730637e-02</internalNodes>
          <leafValues>
            8.2614934444427490e-01 -9.4242173433303833e-01</leafValues></_>
        <_>
          <internalNodes>
            0 -1 11 3.1621500384062529e-03</internalNodes>
          <leafValues>
            -9.8284620046615601e-01 6.1467659473419189e-01</leafValues></_></weakClassifiers></_>
    <!-- stage 2 -->
    <_>
      <maxWeakCount>3</maxWeakCount>
      <stageThreshold>-1.3250933885574341e+00</stageThreshold>
      <weakClassifiers>
        <_>
          <internalNodes>
            0 -1 15 3.5139024257659912e-01</internalNodes>
          <leafValues>
            -9.0787881612777710e-01 6.5333330631256104e-01</leafValues></_>
        <_>
          <internalNodes>
            0 -1 17 -7.6340861618518829e-02</internalNodes>
          <leafValues>
            9.2625194787979126e-01 -7.7883499860763550e-01</leafValues></_>
        <_>
          <internalNodes>
            0 -1 1 -1.6508158296346664e-02</internalNodes>
          <leafValues>
            3.6162036657333374e-01 -1.</leafValues></_></weakClassifiers></_>
    <!-- stage 3 -->
    <_>
      <maxWeakCount>3</maxWeakCount>
      <stageThreshold>-1.1385838985443115e+00</stageThreshold>
      <weakClassifiers>
        <_>
          <internalNodes>
            0 -1 16 4.4101142883300781e-01</internalNodes>
          <leafValues>
            -8.8544154167175293e-01 6.7741936445236206e-01</leafValues></_>
        <_>
          <internalNodes>
            0 -1 19 -8.7455295026302338e-02</internalNodes>
          <leafValues>
            9.0583670139312744e-01 -6.6973543167114258e-01</leafValues></_>
        <_>
          <internalNodes>
            0 -1 8 -2.2714370061294176e-05</internalNodes>
          <leafValues>
            4.1659304499626160e-01 -9.8327344655990601e-01</leafValues></_></weakClassifiers></_>
    <!-- stage 4 -->
    <_>
      <maxWeakCount>3</maxWeakCount>
      <stageThreshold>-1.6337269544601440e+00</stageThreshold>
      <weakClassifiers>
        <_>
          <internalNodes>
            0 -1 8 -1.1492872145026922e-03</internalNodes>
          <leafValues>
            -9.8891967535018921e-01 7.8651688992977142e-02</leafValues></_>
        <_>
          <internalNodes>
            0 -1 4 1.7477968335151672e-01</internalNodes>
          <leafValues>
            -7.4290448427200317e-01 7.5837856531143188e-01</leafValues></_>
        <_>
          <internalNodes>
            0 -1 13 -1.3701134594157338e-03</internalNodes>
          <leafValues>
            -9.6947425603866577e-01 4.0279400348663330e-01</leafValues></_></weakClassifiers></_>
    <!-- stage 5 -->
    <_>
      <maxWeakCount>3</maxWeakCount>
      <stageThreshold>-1.2057690620422363e+00</stageThreshold>
      <weakClassifiers>
        <_>
          <internalNodes>
            0 -1 23 -1.2395156174898148e-01</internalNodes>
          <leafValues>
            4.4117647409439087e-01 -8.7740385532379150e-01</leafValues></_>
        <_>
          <internalNodes>
            0 -1 13 -2.1848009055247530e-05</internalNodes>
          <leafValues>
            3.2209578156471252e-01 -9.3362593650817871e-01</leafValues></_>
        <_>
          <internalNodes>
            0 -1 22 -2.4896563962101936e-02</internalNodes>
          <leafValues>
            7.2194641828536987e-01 -6.5046101808547974e-01</leafValues></_></weakClassifiers></_>
    <!-- stage 6 -->
    <_>
      <maxWeakCount>2</maxWeakCount>
      <stageThreshold>-7.6025122404098511e-01</stageThreshold>
      <weakClassifiers>
        <_>
          <internalNodes>
            0 -1 0 -8.4293968975543976e-02</internalNodes>
          <leafValues>
            7.0833331346511841e-01 -8.6150234937667847e-01</leafValues></_>
        <_>
          <internalNodes>
            0 -1 6 -1.6609015874564648e-03</internalNodes>
          <leafValues>
            -9.9107164144515991e-01 1.0125111043453217e-01</leafValues></_></weakClassifiers></_>
    <!-- stage 7 -->
    <_>
      <maxWeakCount>2</maxWeakCount>
      <stageThreshold>-1.1473449468612671e+00</stageThreshold>
      <weakClassifiers>
        <_>
          <internalNodes>
            0 -1 6 1.6426492948085070e-03</internalNodes>
          <leafValues>
            -2.3015873134136200e-01 -9.9074071645736694e-01</leafValues></_>
        <_>
          <internalNodes>
            0 -1 7 -3.9443075365852565e-05</internalNodes>
          <leafValues>
            2.4572131037712097e-01 -9.1718620061874390e-01</leafValues></_></weakClassifiers></_>
    <!-- stage 8 -->
    <_>
      <maxWeakCount>3</maxWeakCount>
      <stageThreshold>-1.5529313087463379e+00</stageThreshold>
      <weakClassifiers>
        <_>
          <internalNodes>
            0 -1 2 -3.7862893805140629e-05</internalNodes>
          <leafValues>
            1.5044248104095459e-01 -9.1105461120605469e-01</leafValues></_>
        <_>
          <internalNodes>
            0 -1 25 -1.9624909327831119e-05</internalNodes>
          <leafValues>
            4.4056269526481628e-01 -8.2413583993911743e-01</leafValues></_>
        <_>
          <internalNodes>
            0 -1 24 -2.1305306290742010e-05</internalNodes>
          <leafValues>
            4.5784863829612732e-01 -8.7923794984817505e-01</leafValues></_></weakClassifiers></_>
    <!-- stage 9 -->
    <_>
      <maxWeakCount>2</maxWeakCount>
      <stageThreshold>-6.6376149654388428e-01</stageThreshold>
      <weakClassifiers>
        <_>
          <internalNodes>
            0 -1 21 4.0625367313623428e-02</internalNodes>
          <leafValues>
            -8.6368978023529053e-01 7.1428573131561279e-01</leafValues></_>
        <_>
          <internalNodes>
            0 -1 10 -2.1831750927958637e-05</internalNodes>
          <leafValues>
            1.9992829859256744e-01 -9.9200183153152466e-01</leafValues></_></weakClassifiers></_>
    <!-- stage 10 -->
    <_>
      <maxWeakCount>2</maxWeakCount>
      <stageThreshold>-8.5857552289962769e-01</stageThreshold>
      <weakClassifiers>
        <_>
          <internalNodes>
            0 -1 14 -1.6509421402588487e-03</internalNodes>
          <leafValues>
            -9.7570848464965820e-01 1.4465409517288208e-01</leafValues></_>
        <_>
          <internalNodes>
            0 -1 9 -2.2086848039180040e-03</internalNodes>
          <leafValues>
            -1. 1.1713297665119171e-01</leafValues></_></weakClassifiers></_></stages>
  <features>
    <_>
      <rects>
        <_>
          0 0 24 2 -1.</_>
        <_>
          8 0 8 2 3.</_></rects>
      <tilted>0</tilted></_>
    <_>
      <rects>
        <_>
          0 6 15 6 -1.</_>
        <_>
          0 9 15 3 2.</_></rects>
      <tilted>0</tilted></_>
    <_>
      <rects>
        <_>
          0 10 1 2 -1.</_>
        <_>
          0 11 1 1 2.</_></rects>
      <tilted>0</tilted></_>
    <_>
      <rects>
        <_>
          1 6 21 13 -1.</_>
        <_>
          8 6 7 13 3.</_></rects>
      <tilted>0</tilted></_>
    <_>
      <rects>
        <_>
          2 5 21 4 -1.</_>
        <_>
          9 5 7 4 3.</_></rects>
      <tilted>0</tilted></_>
    <_>
      <rects>
        <_>
          3 4 15 18 -1.</_>
        <_>
          8 4 5 18 3.</_></rects>
      <tilted>0</tilted></_>
    <_>
      <rects>
        <_>
          3 10 14 9 -1.</_>
        <_>
          3 13 14 3 3.</_></rects>
      <tilted>0</tilted></_>
    <_>
      <rects>
        <_>
          4 9 3 2 -1.</_>
        <_>
          4 10 3 1 2.</_></rects>
      <tilted>0</tilted></_>
    <_>
      <rects>
        <_>
          4 11 3 6 -1.</_>
        <_>
          4 14 3 3 2.</_></rects>
      <tilted>0</tilted></_>
    <_>
      <rects>
        <_>
          4 11 15 4 -1.</_>
        <_>
          4 13 15 2 2.</_></rects>
      <tilted>0</tilted></_>
    <_>
      <rects>
        <_>
          4 11 16 4 -1.</_>
        <_>
          4 13 16 2 2.</_></rects>
      <tilted>0</tilted></_>
    <_>
      <rects>
        <_>
          5 4 14 2 -1.</_>
        <_>
          5 5 14 1 2.</_></rects>
      <tilted>0</tilted></_>
    <_>
      <rects>
        <_>
          5 6 18 16 -1.</_>
        <_>
          11 6 6 16 3.</_></rects>
      <tilted>0</tilted></_>
    <_>
      <rects>
        <_>
          5 9 1 10 -1.</_>
        <_>
          5 14 1 5 2.</_></rects>
      <tilted>0</tilted></_>
    <_>
      <rects>
        <_>
          5 11 15 4 -1.</_>
        <_>
          5 13 15 2 2.</_></rects>
      <tilted>0</tilted></_>
    <_>
      <rects>
        <_>
          7 3 12 18 -1.</_>
        <_>
          11 3 4 18 3.</_></rects>
      <tilted>0</tilted></_>
    <_>
      <rects>
        <_>
          7 4 12 19 -1.</_>
        <_>
          11 4 4 19 3.</_></rects>
      <tilted>0</tilted></_>
    <_>
      <rects>
        <_>
          8 7 9 8 -1.</_>
        <_>
          11 7 3 8 3.</_></rects>
      <tilted>0</tilted></_>
    <_>
      <rects>
        <_>
          8 7 9 10 -1.</_>
        <_>
          11 7 3 10 3.</_></rects>
      <tilted>0</tilted></_>
    <_>
      <rects>
        <_>
          9 1 4 18 -1.</_>
        <_>
          11 1 2 18 2.</_></rects>
      <tilted>0</tilted></_>
    <_>
      <rects>
        <_>
          9 2 6 17 -1.</_>
        <_>
          11 2 2 17 3.</_></rects>
      <tilted>0</tilted></_>
    <_>
      <rects>
        <_>
          9 9 6 3 -1.</_>
        <_>
          11 9 2 3 3.</_></rects>
      <tilted>0</tilted></_>
    <_>
      <rects>
        <_>
          9 12 6 4 -1.</_>
        <_>
          11 12 2 4 3.</_></rects>
      <tilted>0</tilted></_>
    <_>
      <rects>
        <_>
          11 6 6 11 -1.</_>
        <_>
          14 6 3 11 2.</_></rects>
      <tilted>0</tilted></_>
    <_>
      <rects>
        <_>
          16 8 3 4 -1.</_>
        <_>
          16 10 3 2 2.</_></rects>
      <tilted>0</tilted></_>
    <_>
      <rects>
        <_>
          21 5 2 2 -1.</_>
        <_>
          21 6 2 1 2.</_></rects>
      <tilted>0</tilted></_></features></cascade>
</opencv_storage>
